16 16
-0.855263 1.93324 0.17832 1.34109 0.128988 0.405905 0.847324 0.667998 -1.00895 -0.130707 0.584051 0.462278 0.65585 -0.512963 -1.144 -1.28429 
0.832924 0.0490247 -0.282389 -0.782057 -1.01884 -0.851112 0.839249 0.892697 -1.26893 1.29294 -0.184308 -0.196888 -0.963788 0.540488 -0.484884 0.333292 
-0.76744 0.0415453 1.86078 -2.63072 0.192532 -1.44682 -0.121993 -0.934607 0.20901 0.810065 1.82775 0.68595 -0.499104 -0.321279 -2.75395 1.13406 
-1.11201 0.166137 -1.4617 0.661393 -0.882377 1.30115 0.0397496 -0.238065 0.314544 -0.614956 0.488882 -0.647918 0.384447 -0.933793 0.368706 -0.955033 
-0.743551 -0.960194 -0.231876 -0.133027 0.989092 -0.452301 0.789106 -0.479825 -0.391288 -0.325453 -0.548629 -0.121303 0.525953 0.0832493 -0.685843 1.48043 
-0.627185 -1.39335 -0.422396 1.97219 0.661051 -0.183098 -1.51171 1.00058 -0.658142 -0.915467 0.254659 -0.478276 -0.698048 0.519502 0.0339241 -1.71885 
-0.0953408 -1.89024 -1.28781 0.582425 0.51954 -0.965714 -1.3916 -0.580971 -0.410149 -0.23096 -1.36244 -1.2239 0.171911 0.657296 0.112011 0.672901 
0.0612647 -0.177952 0.573805 1.54956 0.120835 -0.872106 -0.854032 0.688034 1.26429 -1.19888 -0.903255 1.04552 0.11286 2.50169 -0.255202 0.122141 
-1.66176 0.400071 -0.35268 -2.52518 1.19401 -1.46794 0.699892 -0.0709876 -1.87326 -0.549118 1.89832 -0.729184 -1.0381 -0.267175 0.465937 -0.864812 
-0.27435 -0.202597 -1.47023 1.61978 1.64418 0.99843 0.400943 0.735655 0.252728 0.254212 -2.67128 -0.336918 0.1653 -0.487109 -2.16206 0.806556 
0.428477 1.3351 -0.453232 0.150828 -0.0692588 0.65016 1.31521 0.440679 2.48459 -1.31273 -0.34435 -1.08895 -0.795684 0.136126 0.530786 -1.013 
1.41516 0.674811 0.741542 0.133689 0.866087 -0.857627 0.425121 0.622514 0.442311 -0.642214 -1.06434 1.22446 1.08316 0.818071 -1.16975 0.0512213 
-0.0840964 1.0014 -0.419035 0.50076 -0.287044 0.703135 0.232202 1.44254 -0.0836504 0.296351 -0.79486 0.607287 -0.807681 -0.194115 0.248819 0.553465 
0.611771 0.961546 1.05754 -0.00907609 0.266418 1.84511 0.031924 -1.3021 1.26502 -0.645339 2.5131 0.64163 1.40189 -0.897216 -1.85298 -1.20995 
0.362008 -0.0236942 -0.424098 -1.93233 0.574213 -0.904312 0.00756622 1.13321 0.92425 -0.660243 0.615633 -1.45028 0.613824 -0.687122 -0.0603945 0.0929901 
-1.98528 -0.774172 -0.00806548 -0.78548 1.04448 0.681231 0.55611 0.296458 -1.71161 -1.28277 2.06955 -1.82941 1.46506 0.183307 -1.58876 0.473279 
