10 16
-0.380496 1.64829 -0.536543 0.816366 1.47183 -1.81545 2.2872 0.042988 0.0264951 -0.402744 -0.708101 0.0182992 -0.726442 -0.720198 -1.33631 0.12277 
-0.786477 0.492209 0.068703 -0.711795 -0.0653013 -1.72567 -0.757451 0.405796 -1.39854 -0.576456 -1.07522 -0.421217 -0.741301 -0.750959 -0.0135873 1.27941 
-0.0550105 -1.30965 0.493031 -0.0775505 0.964634 0.446972 1.31181 0.880814 0.157379 2.20697 0.272436 -0.2889 -0.0836374 -0.439631 -0.602566 0.617769 
0.891161 1.07359 -2.10821 0.384906 0.247013 -0.213412 0.383001 0.154017 -0.633367 -0.793799 -0.601376 1.48395e-05 0.998062 -0.0124855 -1.0598 0.106281 
0.553752 0.311657 -0.261697 -0.520256 -1.52247 1.36685 -0.443077 -0.0269357 2.7165 -0.842512 -0.161002 -0.8561 0.0368296 -0.109997 -1.22656 0.712949 
-0.532603 0.192732 1.04952 0.713065 0.494675 -1.87281 2.03509 -0.662184 0.147713 -0.698466 -1.19829 0.378099 1.28844 -1.023 0.479804 -0.608987 
2.70564 0.706614 -0.00949035 -1.45102 -1.19087 1.11871 0.610124 1.32862 -0.18305 0.305849 -0.559647 0.84626 1.32648 1.24392 -0.129076 -0.476769 
1.00901 1.02122 0.609854 0.646495 -1.69117 1.23345 1.99364 0.45615 -1.51253 0.897987 0.684424 -0.980647 -0.712619 1.38277 -0.186566 1.03486 
-0.977827 1.37482 -0.704267 0.0761199 0.259389 1.0215 2.63145 -0.00884978 0.850038 0.943532 -0.649541 0.577563 0.783885 1.76762 0.155798 0.426852 
-1.45202 -1.27719 0.523468 0.930326 0.995037 0.128747 0.117374 -1.00597 0.341703 -1.48031 0.611637 -1.85213 -2.20772 1.15286 1.96268 -1.16229 
